{"config": {"hidden_size": 16, "num_v_heads": 4, "num_k_heads": 2, "head_k_dim": 8, "head_v_dim": 8, "conv_kernel": 4, "eps": 1e-06, "seq": 6}, "weights": {"dt_bias": [-0.188110813498497, -0.2125706523656845, 0.11863607168197632, 0.26158973574638367], "A_log": [0.4518161714076996, -0.051317840814590454, -0.39172157645225525, -0.12337012588977814], "conv1d.weight": [-0.153970867395401, -0.16113172471523285, 0.16273047029972076, -0.0020365018863230944, 0.055292632430791855, -0.15433569252490997, -0.5126029253005981, -0.24878080189228058, -0.07137679308652878, 0.0664539709687233, -0.3932546079158783, 0.14904199540615082, -0.08834262192249298, -0.1415412276983261, -0.18670357763767242, -0.11484722048044205, 0.12702810764312744, 0.003532020142301917, 0.32364794611930847, -0.018033264204859734, 0.017053168267011642, -0.16953231394290924, -0.2105223387479782, -0.14830704033374786, -0.02972245030105114, 0.4050214886665344, 0.10145961493253708, -0.09435250610113144, 0.05014519765973091, 0.09156980365514755, 0.31379541754722595, 0.0378103144466877, -0.0057437424547970295, 0.05789762735366821, 0.2646600306034088, -0.20096337795257568, 0.017786415293812752, 0.22325383126735687, 0.036834415048360825, -0.06611482053995132, -0.0726979449391365, -0.005506607238203287, 0.17423853278160095, 0.08048659563064575, -0.13180959224700928, -0.05997548624873161, 0.04703587293624878, -0.2752445638179779, 0.15276391804218292, 0.038236793130636215, -0.10875441879034042, -0.21208249032497406, 0.12551771104335785, -0.08595244586467743, 0.2328806221485138, -0.2653500735759735, 0.27334022521972656, -0.3575880527496338, 0.0409097857773304, -0.33242544531822205, -0.1037905365228653, -0.09843768924474716, 0.13757078349590302, 0.3678312599658966, -0.037179578095674515, 0.08066510409116745, 0.14746274054050446, 0.10919895023107529, -0.20209632813930511, -0.24090448021888733, -0.029468415305018425, 0.04648500308394432, -0.26789698004722595, 0.0027783915866166353, -0.21966390311717987, 0.09561580419540405, 0.010231856256723404, -0.18121227622032166, -0.08571191132068634, 0.11669198423624039, 0.22749434411525726, 0.2975762188434601, 0.26998621225357056, -0.02375473454594612, 0.08728202432394028, 0.26693791151046753, -0.2231692373752594, 0.03196395933628082, 0.12353409826755524, 0.10932590812444687, 0.37222304940223694, 0.10000883787870407, 0.12468913942575455, 0.10836795717477798, -0.05585175380110741, -0.11477493494749069, 0.15662306547164917, -0.22500328719615936, -0.2332914173603058, -0.16544632613658905, 0.05461486801505089, 0.1405906081199646, 0.25772157311439514, -0.20740865170955658, 0.004372095689177513, 0.11512571573257446, -0.0068339030258357525, 0.28014829754829407, 0.10161139070987701, 0.1989404410123825, -0.4535961151123047, 0.33548733592033386, 0.035026803612709045, 0.14253579080104828, -0.08808164298534393, -0.24970999360084534, 0.32376784086227417, -0.042919620871543884, 0.09727955609560013, -0.09569311141967773, -0.2218906134366989, -0.25084272027015686, -0.09698740392923355, -0.02377529814839363, 0.15132282674312592, -0.12953250110149384, -0.2710966169834137, 0.20882466435432434, -0.009088960476219654, 0.2560427486896515, -0.007445428054779768, -0.2581404149532318, 0.15460503101348877, -0.08133604377508163, 0.5925120115280151, 0.18539895117282867, 0.014148751273751259, -0.35057970881462097, -0.19628620147705078, -0.08169461786746979, 0.1083097830414772, 0.3606456220149994, 0.019763294607400894, -0.3161306083202362, -0.611522376537323, -0.3458341062068939, -0.19161264598369598, 0.16006849706172943, -0.5274155735969543, 0.12805502116680145, 0.1497131586074829, -0.05939880758523941, 0.19662387669086456, -0.07570251077413559, -0.22255976498126984, 0.2267169952392578, 0.200656920671463, 0.07902611792087555, 0.09939708560705185, -0.02578032948076725, 0.002171284519135952, -0.22408245503902435, 0.0020616918336600065, -0.062234677374362946, -0.1833871454000473, 0.042328618466854095, 0.2832889258861542, 0.40628939867019653, 0.03090188279747963, -0.1732306331396103, -0.05667082592844963, -0.09656622260808945, 0.08207933604717255, 0.00763288838788867, -0.32721078395843506, 0.1651635617017746, -0.10457760095596313, 0.1860998272895813, -0.1787724643945694, -0.02771594002842903, -0.05500946566462517, -0.22951944172382355, -0.21632912755012512, -0.4074068069458008, 0.1758476346731186, -0.16106443107128143, -0.026785392314195633, 0.1724732667207718, 0.050952423363924026, 0.08547884225845337, -0.00704212998971343, 0.23196132481098175, 0.2833445966243744, 0.4242088794708252, -0.12507836520671844, -0.2993185222148895, -0.3074028789997101, -0.09628555178642273, 0.10124188661575317, 0.3269398808479309, -0.05773790553212166, 0.11941803991794586, -0.23127400875091553, 0.04289817065000534, 0.19452925026416779, 0.25613054633140564, -0.3076373040676117, -0.0896754190325737, -0.08549264818429947, -0.1830078363418579, -0.27268362045288086, -0.26230588555336, -0.12996946275234222, -0.2756156623363495, 0.19897107779979706, -0.13753513991832733, 0.020197035744786263, -0.2900533080101013, -0.2732653021812439, 0.044891275465488434, -0.19876541197299957, -0.31128305196762085, 0.135166734457016, -0.1368255317211151, 0.36024123430252075, -0.24304190278053284, 0.21908099949359894, -0.4121064841747284, -0.028120798990130424, -0.11819864809513092, 0.15937696397304535, -0.463755339384079, 0.03722786530852318, -0.07827555388212204, 0.021619929000735283, 0.04272575303912163, -0.06654766201972961, 0.10677751153707504, -0.014694198034703732, -0.004638075362890959, -0.0015589505201205611, -0.28161975741386414, -0.21088798344135284, 0.1832880824804306, 0.3575843572616577, -0.12494651228189468, -0.2919659912586212, 0.2416752129793167, -0.14996525645256042, 0.00032454662141390145, -0.2640193998813629, 0.1473039984703064, 0.2869299352169037, 0.0247133057564497, 0.12129439413547516, -0.25329986214637756], "norm.weight": [0.10007078945636749, -0.06846173107624054, 0.0025162994861602783, 0.2007102072238922, 0.20804326236248016, -0.028303835541009903, 0.14237475395202637, -0.04838501662015915], "out_proj.weight": [0.23131577670574188, -0.21358537673950195, 0.09467819333076477, 0.08680690824985504, 0.07968900352716446, 0.3584042191505432, 0.17612777650356293, 0.01779608614742756, -0.06115366891026497, -0.012460811994969845, 0.16107167303562164, 0.06907497346401215, 0.04387948289513588, 0.14601455628871918, -0.054231684654951096, -0.02627597190439701, -0.024381587281823158, 0.010134583339095116, -0.14830021560192108, -0.04582534357905388, -0.2844727635383606, -0.19105739891529083, 0.13892395794391632, 0.1831165850162506, -0.24836193025112152, -0.0776912197470665, -0.12194842100143433, 0.019019432365894318, 0.09127024561166763, 0.010498704388737679, 0.1436614692211151, -0.01396603137254715, -0.14813201129436493, -0.28736281394958496, 0.03212190046906471, 0.23570206761360168, -0.22659707069396973, -0.057574231177568436, -0.004627167247235775, -0.03885573893785477, -0.06944789737462997, 0.20644448697566986, -0.13716572523117065, -0.02086087502539158, -0.19398292899131775, 0.0051786163821816444, 0.32331544160842896, -0.09203148633241653, 0.14898690581321716, 0.25955888628959656, -0.11181353777647018, -0.15782487392425537, -0.35741397738456726, -0.1788453310728073, -0.02261384017765522, 0.14278316497802734, 0.04265977814793587, -0.1752385050058365, 0.1189286857843399, -0.3482491075992584, 0.21037280559539795, 0.3153582513332367, 0.23610547184944153, -0.29140380024909973, 0.08854597061872482, 0.03295985236763954, 0.2095571756362915, -0.06711449474096298, -0.014830811880528927, 0.009547806344926357, -0.13598990440368652, -0.46138808131217957, 0.11339627951383591, -0.20340211689472198, -0.26020094752311707, 0.24381597340106964, 0.07993593066930771, 0.01158301904797554, -0.07254079729318619, 0.2167528122663498, -0.07161996513605118, 0.26809161901474, -0.2984599769115448, -0.16847912967205048, 0.2345665544271469, 0.18030117452144623, -0.2379680722951889, -0.23943157494068146, 0.233038067817688, -0.17052191495895386, 0.09964701533317566, 0.07161980122327805, 0.07824694365262985, 0.2112826555967331, -0.023329628631472588, 0.1264389306306839, -0.14589695632457733, 0.00017301886691711843, -0.16065160930156708, -0.29897403717041016, -0.0725289136171341, 0.15434947609901428, 0.10496790707111359, -0.1909344643354416, 0.039755791425704956, 0.3387424647808075, 0.1509418487548828, 0.02714729681611061, -0.4449034631252289, -0.03697250410914421, -0.11142207682132721, -0.0659315213561058, -0.13039372861385345, -0.004752872046083212, 0.22322629392147064, 0.10860490053892136, -0.2962664067745209, 0.01033630222082138, -0.022630766034126282, -0.16009292006492615, 0.18319495022296906, 0.2812521159648895, 0.049203258007764816, -0.1838255375623703, 0.03727952763438225, 0.0878625139594078, 0.07553734630346298, -0.17362816631793976, -0.10651595890522003, 0.007320399861782789, -0.08687897771596909, -0.24179740250110626, -0.18808771669864655, -0.014741204679012299, 0.11440499871969223, 0.40389639139175415, -0.021841909736394882, -0.24639134109020233, 0.2166178673505783, -0.1740901917219162, -0.2459704875946045, 0.12251027673482895, -0.2959468364715576, 0.0698411762714386, -0.17302724719047546, -0.11760075390338898, -0.03657851740717888, 0.10295423120260239, -0.030694250017404556, -0.21193356812000275, -0.047964226454496384, -0.0788559839129448, 0.0002235757710877806, 0.06785482168197632, -0.12973926961421967, 0.08339598774909973, 0.037419117987155914, -0.15999466180801392, -0.19675154983997345, -0.019101997837424278, -0.2507036328315735, 0.13468705117702484, -0.17690736055374146, 0.28054043650627136, -0.4610450863838196, 0.02940024994313717, 0.20273879170417786, -0.20786690711975098, 0.13373783230781555, -0.8187474608421326, -0.018976183608174324, -0.2613249123096466, -0.031234130263328552, 0.06236555054783821, -0.19105850160121918, -0.28125232458114624, -0.453045517206192, -0.14886465668678284, -0.33392763137817383, 0.2900467813014984, 0.09055189043283463, 0.1910128891468048, -0.06079047545790672, 0.05474978685379028, -0.04881161078810692, 0.2368934452533722, -0.06721257418394089, 0.2224275916814804, -0.2490043193101883, 0.04737614840269089, -0.26507341861724854, -0.10066523402929306, -0.053320299834012985, 0.2286372035741806, -0.011851820163428783, 0.20216922461986542, 0.24015192687511444, -0.17793430387973785, -0.4665864109992981, 0.14394108951091766, 0.023850396275520325, 0.4361676275730133, 0.10413964837789536, -0.015370571985840797, -0.23705819249153137, -0.04190946742892265, -0.12327780574560165, 0.07414360344409943, 0.21803759038448334, -0.05893678590655327, -0.15524300932884216, -0.04584061726927757, -0.3121035695075989, -0.0288070235401392, 0.3040771782398224, -0.12538455426692963, 0.3470073342323303, -0.20199568569660187, -0.05884496122598648, -0.08070540428161621, 0.31016507744789124, 0.3256482481956482, -0.19172698259353638, -0.22017061710357666, -0.1679275929927826, -0.0707208663225174, -0.15978388488292694, 0.10767772048711777, 0.15765786170959473, 0.008401839062571526, -0.4074324071407318, 0.38015198707580566, -0.00045331529690884054, 0.24069397151470184, -0.11910126358270645, 0.19311341643333435, -0.31050345301628113, 0.09241138398647308, -0.2789064049720764, 0.01932706870138645, 0.3030167520046234, -0.36114561557769775, -0.19556975364685059, -0.017626356333494186, 0.2093234807252884, -0.268388569355011, -0.3355161249637604, 0.13829760253429413, 0.12559382617473602, -0.12418162077665329, 0.35818108916282654, 0.24890370666980743, -0.28818169236183167, 0.12952673435211182, -0.17811007797718048, -0.32061049342155457, -0.07516365498304367, 0.3270420730113983, 0.0502949021756649, -0.06037619337439537, -0.0366409532725811, 0.12282242625951767, -0.020515767857432365, 0.09699875861406326, -0.373169869184494, -0.09759380668401718, -0.20012176036834717, 0.02865883708000183, -0.016561359167099, 0.265622079372406, -0.23256634175777435, 0.08287178725004196, 0.08889186382293701, 0.14851854741573334, -0.16119205951690674, -0.04050694406032562, 0.19406463205814362, -0.16023515164852142, 0.055531036108732224, -0.3876101076602936, -0.3759600818157196, 0.057423245161771774, 0.05239168554544449, -0.07164935767650604, -0.021550055593252182, 0.1496325135231018, -0.1484660655260086, 0.06893299520015717, -0.10027209669351578, -0.12154598534107208, -0.027121230959892273, -0.12625184655189514, -0.5556536316871643, 0.019657786935567856, 0.2772800624370575, -0.1614854782819748, -0.13937529921531677, -0.34118956327438354, -0.06118771433830261, 0.4301470220088959, -0.5354220271110535, 0.18908652663230896, -0.13701312243938446, 0.7069286704063416, 0.05409831926226616, 0.15850971639156342, -0.11639074236154556, 0.07465363293886185, -0.13130433857440948, -0.13481572270393372, -0.1326933205127716, -0.14242444932460785, 0.27072039246559143, 0.09987489134073257, -0.31204545497894287, 0.2262924462556839, 0.3194768726825714, 0.13455785810947418, -0.030101770535111427, 0.27175161242485046, -0.1752871721982956, 0.05133781582117081, 0.34227892756462097, -0.1753220409154892, -0.07896249741315842, 0.02886202000081539, -0.11364265531301498, -0.24939250946044922, 0.011540180072188377, -0.18675947189331055, -0.18661770224571228, -0.23061342537403107, -0.13332532346248627, -0.11217069625854492, 0.21074286103248596, -0.15540634095668793, -0.1660517305135727, -0.0886993259191513, -0.08395805209875107, 0.026909222826361656, 0.09695730358362198, 0.24732838571071625, 0.3961217999458313, -0.04809998348355293, -0.4001268446445465, -0.1276019662618637, -0.23427505791187286, -0.1683097928762436, -0.020526831969618797, -0.23372267186641693, 0.16406388580799103, 0.13632075488567352, -0.3165949285030365, 0.018664639443159103, -0.1423490345478058, -0.08999829739332199, 0.1632664054632187, 0.31841254234313965, -0.17338153719902039, 0.2849334478378296, 0.12573447823524475, -0.13774240016937256, -0.22951367497444153, 0.13715195655822754, 0.2156582921743393, -0.08723755180835724, 0.23574820160865784, -0.2792171835899353, 0.3503134548664093, -0.15165548026561737, -0.07507040351629257, -0.23821769654750824, 0.13093844056129456, -0.15414784848690033, 0.13645495474338531, 0.20292702317237854, 0.111109159886837, 0.1711551994085312, -0.04056626930832863, -0.07361065596342087, -0.08221226930618286, 0.2362242043018341, 0.10028808563947678, -0.36346763372421265, -0.273367315530777, -0.3220195174217224, 0.1300479620695114, -0.0576438307762146, 0.1674584448337555, 0.08633655309677124, -0.08117032796144485, 0.09845419228076935, 0.08330130577087402, 0.19433161616325378, -0.036705296486616135, 0.12314184755086899, -0.01632305048406124, 0.23215916752815247, 0.28629744052886963, 0.09713734686374664, -0.3737286627292633, 0.11593017727136612, -0.2531172037124634, 0.1725892275571823, -0.4407958686351776, -0.25999441742897034, -0.058684032410383224, -0.1783173531293869, -0.15011881291866302, 0.01198535691946745, -0.1847408413887024, -0.025063443928956985, -0.5601457953453064, 0.0043441555462777615, 0.04472856596112251, -0.19688597321510315, 0.15583211183547974, 0.6183657050132751, -0.4521918296813965, -0.17589375376701355, 0.17353883385658264, 0.04854431003332138, -0.1381000280380249, -0.28919968008995056, 0.04111986607313156, 0.08837760984897614, 0.10417453199625015, -0.27363643050193787, 0.002566831884905696, 0.011103962548077106, -0.0023589995689690113, 0.5086313486099243, -0.31672486662864685, -0.019616400822997093, -0.05166313797235489, -0.013299055397510529, 0.31261929869651794, 0.026666417717933655, 0.050623565912246704, -0.2752764821052551, 0.2248876839876175, -0.28660309314727783, -0.052841853350400925, 0.062221307307481766, 0.22490374743938446, -0.20416009426116943, 0.1544634997844696, 0.09969611465930939, -0.25499892234802246, -0.005374446045607328, 0.14671994745731354, -0.08077100664377213, -0.279261976480484, 0.2256883829832077, -0.23867228627204895, -0.027321120724081993, -0.04679090529680252, -0.13685530424118042, 0.3112446665763855, -0.07948773354291916, -0.0034377872943878174, -0.11647152900695801, 0.18724006414413452, -0.0005864833947271109, -0.09106206148862839, -0.14678695797920227, -0.28345149755477905, 0.021439367905259132, -0.14604993164539337, -0.17432469129562378, -0.22497867047786713, 0.3823358714580536, 0.1351657509803772, -0.1275978982448578, -0.04569309577345848, 0.03123062662780285, 0.38448360562324524, 0.3558700978755951, 0.22112928330898285, 0.14045290648937225, 0.06626594066619873, -0.1173500344157219, -0.01687745936214924, -0.051540907472372055, -0.1820279210805893, -0.26336193084716797, 0.11672686785459518, 0.0389731265604496, 0.09195473045110703, 0.18553468585014343, 0.2093762457370758, -0.03348882123827934, -0.20383238792419434, -0.22135961055755615, -0.43002134561538696, -0.4487151801586151, 0.14192694425582886, 0.010827860794961452, -0.15962524712085724, -0.25698956847190857, 0.03964924067258835, -0.05433107540011406, -0.08212622255086899, -0.02225254848599434, -0.030579358339309692, -0.3848719298839569, -0.3460922837257385, 0.02764236368238926, -0.061673399060964584, 0.11931513994932175, -0.273569792509079, 0.29815584421157837], "in_proj_qkv.weight": [-0.10995279997587204, 0.3544968068599701, 0.20286870002746582, 0.1005646139383316, -0.21012325584888458, 0.049783799797296524, 0.2198946475982666, -0.2304886132478714, -0.20644354820251465, 0.03613836690783501, 0.2518349587917328, -0.1707107275724411, 0.10145629942417145, -0.13284747302532196, -0.23847070336341858, 0.3028554320335388, -0.018579954281449318, -0.02428162656724453, 0.13537946343421936, 0.1942978799343109, 0.1953541487455368, -0.014391412027180195, 0.10397493094205856, 0.08173296600580215, -0.1348070651292801, 0.04259587824344635, 0.27512305974960327, 0.2742997705936432, -0.06707017868757248, -0.03112032823264599, 0.06974976509809494, 0.21112357079982758, -0.020002011209726334, -0.23017524182796478, -0.015654783695936203, -0.23343594372272491, -0.19442355632781982, 0.06918247789144516, -0.009137929417192936, 0.09581240266561508, 0.07671143114566803, -0.12236703932285309, 0.16716185212135315, 0.02625027671456337, 0.07682459056377411, -0.01903369277715683, 0.06548895686864853, -0.018422681838274002, -0.09738493710756302, -0.06511687487363815, 0.28817975521087646, 0.03937152773141861, 0.30974525213241577, -0.14149242639541626, 0.4038492739200592, 0.4245222210884094, -0.019854819402098656, -0.05173986032605171, -0.06221385672688484, -0.13117437064647675, 0.13060054183006287, 0.014277431182563305, 0.12747302651405334, -0.38900843262672424, 0.19590969383716583, 0.22195462882518768, -0.10697733610868454, 0.14113840460777283, -0.10679123550653458, 0.4242633283138275, -0.15058238804340363, 0.22343018651008606, -0.06013042852282524, -0.0750480517745018, 0.0754391998052597, -0.028184158727526665, -0.23487912118434906, -0.12215801328420639, -0.01407654769718647, 0.11606728285551071, -0.13601934909820557, -0.240326389670372, 0.054015304893255234, -0.007342323195189238, 0.2877262830734253, 0.03979647904634476, -0.033201463520526886, 0.4665672481060028, -0.13300544023513794, 0.1619291454553604, -0.33689042925834656, 0.009895260445773602, 0.30498751997947693, 0.05140938237309456, -0.35339105129241943, -0.42797476053237915, 0.2020200490951538, -0.023803094401955605, -0.02096768468618393, 0.18332539498806, 0.32460111379623413, -0.11811204999685287, -0.24802115559577942, 0.018094472587108612, -0.13396458327770233, 0.025674059987068176, 0.016095967963337898, 0.07453586906194687, 0.1103484034538269, -0.025461766868829727, -0.13807182013988495, -0.14227156341075897, -0.034103553742170334, -0.14135663211345673, -0.1725175827741623, -0.2354549616575241, 0.056364547461271286, 0.23121093213558197, 0.26151809096336365, 0.1311606764793396, 0.06343808770179749, -0.22556868195533752, 0.12204449623823166, -0.2658554017543793, 0.1493019163608551, 0.17404226958751678, 0.16829447448253632, 0.30671700835227966, -0.06594420969486237, 0.1132640391588211, -0.18429408967494965, -0.13725244998931885, -0.2330522984266281, 0.18296517431735992, -0.13222549855709076, -0.07733125239610672, 0.15122483670711517, 0.23561954498291016, -0.07524789869785309, -0.02375706098973751, 0.04258259758353233, -0.0044865477830171585, 0.33856600522994995, 0.037502121180295944, 0.043224841356277466, 0.3758447766304016, 0.04609084874391556, -0.1961279958486557, 0.1641814112663269, -0.22192294895648956, 0.22748692333698273, -0.19004033505916595, -0.2783781588077545, -0.2411416620016098, 0.4084422290325165, 0.16337132453918457, 0.0531659796833992, -0.1950986534357071, -0.28821128606796265, 0.13284240663051605, -0.26115623116493225, 0.03732801228761673, -0.21223674714565277, 0.398238867521286, -0.22029994428157806, -0.020958352833986282, 0.08135084807872772, 0.0003682222159113735, -0.03400607407093048, -0.29130154848098755, 0.09337528049945831, -0.13062363862991333, 0.1397123634815216, -0.015679458156228065, -0.02594153583049774, -0.019238153472542763, -0.08511078357696533, 0.008244569413363934, -0.10874613374471664, 0.1980782300233841, 0.34964725375175476, -0.12485599517822266, -0.026563474908471107, 0.2556072175502777, 0.2137652188539505, 0.565344512462616, -0.07843875139951706, 0.23128901422023773, -0.11433174461126328, 0.036174457520246506, 0.04193080589175224, -0.14475327730178833, 0.1701214611530304, 0.18689842522144318, 0.07769569009542465, 0.5475580096244812, 0.11841344833374023, 0.40264126658439636, -0.09151207655668259, -0.010703984647989273, -0.22938571870326996, 0.19346843659877777, 0.13473263382911682, 0.019180942326784134, -0.14198675751686096, -0.1894906461238861, 0.20347662270069122, 0.33324381709098816, -0.08239593356847763, -0.2774461805820465, -0.10964522510766983, -0.06998135894536972, 0.03125305846333504, -0.1636427491903305, -0.021532230079174042, -0.0018225758103653789, 0.2516305148601532, -0.20078924298286438, -0.25711366534233093, -0.18817533552646637, 0.12284553050994873, 0.42813840508461, 0.12264543026685715, 0.03682665526866913, -0.06932990252971649, -0.11691047251224518, 0.15457119047641754, -0.037509482353925705, -0.08447086066007614, 0.004721017554402351, -0.12537448108196259, -0.030867615714669228, 0.0420132540166378, -0.2451663464307785, 0.10553423315286636, 0.01034566480666399, 0.10735157877206802, 0.13342377543449402, 0.10508499294519424, 0.1265244483947754, 0.21186719834804535, 0.10944602638483047, 0.2539653480052948, 0.4797075688838959, 0.43225786089897156, -0.146352618932724, -0.19652025401592255, -0.03443152830004692, -0.11479610204696655, 0.0011812058510258794, 0.08817816525697708, 0.15982630848884583, 0.09854213148355484, -0.0663188099861145, 0.21520109474658966, -0.032200779765844345, -0.010110803879797459, -0.16513800621032715, -0.12321702390909195, 0.06742268055677414, 0.07406672090291977, -0.021014627069234848, -0.11307642608880997, 0.07936839014291763, -0.22482596337795258, 0.16272956132888794, 0.124880850315094, 0.11679740995168686, 0.03611178323626518, -0.33346471190452576, 0.0969567820429802, -0.1853153258562088, 0.1763954609632492, -0.20388798415660858, 0.03643318638205528, -0.19463053345680237, 0.19585387408733368, -0.014544785022735596, 0.1551230251789093, -0.08018200099468231, 0.17257751524448395, -0.11738789081573486, -0.05155806615948677, -0.13912861049175262, -0.02815496362745762, -0.13828180730342865, 0.12138380110263824, 0.2309073656797409, -0.12659481167793274, -0.0075906612910330296, -0.2305494099855423, 0.4268277585506439, 0.23305176198482513, -0.0532749705016613, 0.16181671619415283, 0.06741758435964584, 0.14891323447227478, -0.2895345091819763, -0.006996311247348785, 0.06265716254711151, 0.10496453195810318, -0.11560636758804321, 0.0654226616024971, 0.04975619539618492, -0.0982326865196228, -0.34658870100975037, 0.08019327372312546, -0.16462348401546478, -0.11283393204212189, -0.36261600255966187, 0.15942935645580292, -0.20274212956428528, -0.09160405397415161, -0.4244270324707031, -0.17029638588428497, -0.027078574523329735, -0.038013946264982224, 0.07502302527427673, 0.1343846321105957, 0.17744170129299164, -0.14541970193386078, 0.011532634496688843, -0.10967685282230377, 0.015632543712854385, -0.02673577331006527, 0.04237445816397667, 0.054337382316589355, -0.24439458549022675, -0.5261374711990356, -0.11162032932043076, -0.06543658673763275, 0.007978810928761959, 0.24442033469676971, 0.02888365089893341, 0.13933517038822174, -0.4463581144809723, 0.18210887908935547, 0.5499674081802368, -0.07080715149641037, -0.021220453083515167, 0.49071526527404785, 0.06646377593278885, -0.34874242544174194, 0.28337183594703674, 0.052008289843797684, -0.23598594963550568, 0.08146565407514572, 0.07509522140026093, 0.4056975543498993, 0.03496492654085159, -0.29342520236968994, 0.01580890081822872, 0.1740153282880783, -0.17903299629688263, 0.12628574669361115, 0.0716443806886673, 0.29682397842407227, -0.12446621805429459, 0.14549630880355835, 0.1288425475358963, 0.2598205506801605, -0.075714610517025, 0.27218160033226013, 0.18110282719135284, 0.036013007164001465, 0.19443239271640778, 0.24924765527248383, -0.10744073241949081, -0.24829931557178497, -0.15456430613994598, -0.02980883978307247, -0.32841190695762634, 0.0240182988345623, 0.18740452826023102, 0.08442112803459167, 0.13040803372859955, -0.30955126881599426, 0.2307145595550537, 0.4341468811035156, 0.012032703496515751, 0.04214851185679436, -0.11270536482334137, -0.19050262868404388, -0.022087661549448967, 0.20532119274139404, -0.29322919249534607, -0.19906069338321686, -0.08264493942260742, 0.21699371933937073, -0.11304040253162384, -0.14752964675426483, 0.022874081507325172, 0.01578979752957821, -0.03318276256322861, -0.11256944388151169, 0.019661329686641693, -0.2377915382385254, -0.017157411202788353, 0.09502791613340378, 0.1591339111328125, 0.11968886107206345, 0.11445984989404678, -0.026328090578317642, -0.013782155700027943, -0.20209050178527832, 0.20153987407684326, -0.12115611135959625, 0.35072383284568787, -0.06189817935228348, 0.17809061706066132, -0.13347582519054413, 0.12137619405984879, 0.06836504489183426, -0.042725350707769394, -0.05150958523154259, 0.05163238197565079, -0.17445342242717743, -0.22026491165161133, 0.06747670471668243, 0.12746523320674896, 0.041529446840286255, 0.11758787930011749, -0.24208872020244598, 0.13483957946300507, 0.4757814109325409, -0.060166727751493454, 0.1357288658618927, -0.07267637550830841, 0.45784124732017517, -0.20733201503753662, -0.24726830422878265, -0.3506070375442505, -0.01575993187725544, -0.006907069589942694, 0.3290256857872009, -0.1859702169895172, -0.17141209542751312, -0.008265064097940922, -0.0898144394159317, 0.0012804557336494327, -0.11197489500045776, -0.23011748492717743, -0.07486853003501892, 0.13317550718784332, -0.15789222717285156, 0.32989293336868286, 0.052294738590717316, 0.20206885039806366, -0.35370108485221863, -0.1815064698457718, 0.2734985053539276, 0.3375312387943268, -0.2533302307128906, -0.0007283840677700937, 0.2223890870809555, 0.07733028382062912, -0.1960689127445221, 0.1516442894935608, 0.14976643025875092, -0.0735747441649437, 0.08816689997911453, 0.25387534499168396, 0.018545188009738922, 0.019584273919463158, 0.23307429254055023, 0.11121662706136703, -0.134938582777977, 0.13636863231658936, 0.01465152483433485, 0.19454830884933472, -0.31113573908805847, -0.19174724817276, 0.1986825168132782, -0.11401529610157013, 0.0922989472746849, -0.018199356272816658, -0.43235188722610474, 0.019202828407287598, -0.20546936988830566, -0.38082659244537354, 0.15860679745674133, 0.3422820568084717, -0.0599544458091259, 0.03790413215756416, -0.29829317331314087, -0.5537697672843933, 0.3164074420928955, 0.1047888919711113, 0.07439061254262924, 0.22782199084758759, 0.05994970351457596, -0.17879585921764374, -0.4591211974620819, 0.22215786576271057, -0.10352122783660889, -0.08380696922540665, -0.004404229111969471, -0.14861951768398285, -0.0833207294344902, -0.07454321533441544, -0.15641818940639496, -0.05202891305088997, -0.0872761532664299, 0.08760213106870651, -0.15733397006988525, -0.06767026335000992, -0.21811993420124054, -0.2617287039756775, 0.17439743876457214, 0.30294206738471985, -0.37618592381477356, 0.1857830137014389, -0.2041095793247223, -0.11927240341901779, -0.3107902705669403, -0.31001362204551697, -0.11988772451877594, 0.06352213770151138, -0.058860328048467636, -0.10612276941537857, -0.27082595229148865, -0.03963765129446983, -0.2270221710205078, 0.019359761849045753, 0.15345631539821625, -0.3452989459037781, -0.1709194928407669, -0.2517069876194, 0.34200140833854675, 0.11664637178182602, 0.10807037353515625, -0.22818616032600403, 0.3534350097179413, -0.08050348609685898, -0.1377629041671753, -0.0858788788318634, 0.16861079633235931, 0.09043937176465988, -0.1644977331161499, -0.03368249908089638, 0.24926748871803284, 0.04595828801393509, 0.01427975483238697, 0.17602241039276123, 0.054394301027059555, 0.26037684082984924, 0.2054799646139145, 0.2387751340866089, 0.06154034286737442, 0.08196981251239777, -0.07148321717977524, -0.10801810026168823, -0.06217997148633003, -0.2247624397277832, -0.06255421787500381, 0.5458312630653381, -0.07856976240873337, -0.11715205758810043, 0.21515123546123505, -0.03878563269972801, 0.17305539548397064, 0.1094372496008873, -0.0010959674837067723, 0.17670811712741852, -0.11269617080688477, -0.09846972674131393, -0.09924941509962082, -0.053989674896001816, 0.27800044417381287, -0.3795553147792816, 0.05180221423506737, -0.6766548156738281, -0.15750843286514282, -0.2960074543952942, 0.08338750898838043, 0.08294077217578888, -0.15720169246196747, 0.056639011949300766, 0.12044258415699005, 0.035009998828172684, -0.08832590281963348, 0.03982958942651749, 0.24281015992164612, -0.0001737823331495747, 0.005818082019686699, -0.12931303679943085, 0.4950365126132965, -0.22358982264995575, 0.1382082849740982, 0.03531284257769585, 0.0072954739443957806, -0.017175791785120964, 0.030801469460129738, -0.3283459544181824, 0.05002913996577263, -0.2717945873737335, 0.09688638895750046, 0.4320956766605377, -0.0098491832613945, 0.07449500262737274, -0.09511462599039078, -0.0351913683116436, 0.2555600702762604, 0.2105036973953247, 0.0349036306142807, 0.18648670613765717, 0.00786765106022358, -0.06870974600315094, -0.14466260373592377, 0.2000424861907959, 0.04504319652915001, -0.45850735902786255, -0.07341307401657104, -0.17421691119670868, 0.12985458970069885, -0.1670094132423401, -0.2508063018321991, -0.179308220744133, -0.18605194985866547, -0.1949663907289505, -0.22545991837978363, 0.24095118045806885, -0.19967801868915558, -0.20281076431274414, 0.32826483249664307, -0.09875853359699249, 0.08188078552484512, 0.010776498354971409, 0.1568983793258667, 0.26879867911338806, 0.25822892785072327, 0.019899070262908936, -0.24517221748828888, 0.18464015424251556, -0.0315508134663105, -0.2700779139995575, -0.269446462392807, -0.33945325016975403, 0.16732613742351532, -0.30323609709739685, 0.5121574997901917, 0.014212674461305141, 0.04212784767150879, -0.11089109629392624, 0.17568819224834442, 0.19661009311676025, -0.26293277740478516, -0.18586912751197815, 0.08620192855596542, -0.11260979622602463, -0.21702192723751068, 0.07100433111190796, -0.08533284813165665, -0.17235518991947174, 0.2180822193622589, -0.02266031876206398, 0.24793951213359833, -0.17776809632778168, 0.12469933182001114, 0.15397575497627258, -0.1259712129831314, -0.29699501395225525, 0.1812928169965744, 0.0864691510796547, -0.09736088663339615, -0.0976443663239479, -0.14927639067173004, -0.044056449085474014, 0.05969873070716858, -0.1503453105688095, -0.04223807901144028, 0.12894044816493988, 0.03813860937952995, 0.1381552666425705, 0.16661575436592102, 0.08562319725751877, 0.32792553305625916, -0.007184313144534826, 0.13029754161834717, 0.15172770619392395, 0.18171049654483795, 0.22055576741695404, 0.14979885518550873, -0.2699742913246155, 0.08724353462457657, 0.1668308675289154, -0.21203632652759552, 0.469574898481369, 0.08272749185562134, -0.10511744022369385, -0.26266297698020935, 0.15125547349452972, -0.13794079422950745, 0.2379871904850006, 0.41051673889160156, 0.1253034621477127, -0.4275880455970764, -0.1171291396021843, 0.015394448302686214, 0.20927849411964417, -0.18570278584957123, -0.2771672308444977, 0.1957971602678299, 0.030685365200042725, 0.003985745366662741, -0.1674269437789917, 0.01662771962583065, -0.1376255601644516, 0.2866928279399872, 0.19088435173034668, 0.06686536222696304, 0.13560307025909424, 0.0257610771805048, 0.22008979320526123, -0.18700101971626282, -0.1219446212053299, 0.4328218996524811, -0.028981361538171768, -0.10792150348424911, 0.21119697391986847, -0.06037220358848572, 0.2224513590335846, -0.10160098224878311, 0.0913441926240921, -0.059649206697940826, 0.010401158593595028, -0.2050340473651886, -0.2795497477054596, 0.31235215067863464, -0.21977834403514862, -0.04309361055493355, 0.06727855652570724, 0.06029006838798523, -0.32017406821250916, -0.1694916933774948, 0.1457529515028, -0.05970253422856331, 0.11401088535785675, 0.4391675889492035, 0.0013771664816886187, 0.34494534134864807, -0.16131837666034698, 0.2270527184009552, 0.025770781561732292, 0.09746977686882019, -0.06129537895321846, 0.14605815708637238, -0.13863426446914673, 0.18740542232990265, -0.0795656368136406, 0.06857484579086304, 0.019778775051236153, 0.042971815913915634, -0.10703375190496445, -0.24836809933185577, 0.10009415447711945, -0.0022414454724639654, -0.24176275730133057, 0.3134591579437256, 0.4412878453731537, -0.07911121100187302, 0.14205631613731384, 0.07398806512355804, -0.03790344297885895, -0.28076446056365967, 0.26601701974868774, -0.30376487970352173, 0.1845361441373825, 0.09923823922872543, -0.05318977311253548, -0.09885101765394211, 0.07126566022634506, 0.18901892006397247, -0.4481567442417145, 0.01512365322560072, 0.16712476313114166, -0.4478455185890198, -0.34381869435310364, 0.0408734492957592, -0.051566727459430695, -0.3762896955013275, -0.44619235396385193, -0.25005531311035156, 0.03368201106786728, -0.15211687982082367, 0.14178846776485443, -0.28273046016693115, -0.15223966538906097, 0.029752178117632866, 0.27948713302612305, 0.0484260655939579, 0.09685923159122467, 0.03972257301211357, 0.21127286553382874, -0.030088666826486588, 0.1484040468931198, 0.30413609743118286, 0.08002202957868576, -0.027307523414492607, 0.27637991309165955, -0.13908228278160095, -0.27042222023010254, 0.11375947296619415, -0.11285889148712158, -0.011293563060462475, 0.12832079827785492, -0.08767416328191757, 0.09003350883722305, -0.21828027069568634, 0.3339458405971527, -0.18170878291130066, 0.04889330640435219, 0.034421734511852264, 0.23134827613830566, -0.12342561781406403, 0.2310919612646103, -0.11117877066135406, -0.0596218965947628, 0.09625222533941269, 0.039987072348594666, -0.12825171649456024, 0.03062020055949688, 0.012188847176730633, 0.30633798241615295, 0.24893765151500702, -0.20588438212871552, -0.3730638921260834, -0.1481136679649353, 0.0834297314286232, -0.21163879334926605, 0.13101771473884583, 0.0035135147627443075, -0.18723230063915253, -0.06798062473535538, -0.08662430197000504, 0.20528116822242737, 0.3744870126247406, -0.1551324874162674, 0.038895200937986374, 0.10099730640649796, -0.1145559772849083, -0.08490673452615738, 0.04534566402435303, -0.19176767766475677, 0.2634972333908081, 0.0695578083395958, 0.2225688248872757, -0.040701404213905334, 0.1841220110654831, -0.1262439489364624, -0.37148043513298035, 0.2851288616657257, 0.06542059034109116, -0.11195514351129532, -0.0694841742515564, 0.004607471637427807, -0.41441985964775085, -0.607137143611908, -0.3457694947719574, 0.12039641290903091, -0.07541542500257492, 0.03865944594144821, 0.2693502604961395, -0.06622562557458878, 0.24998655915260315, 0.028171926736831665, 0.27515313029289246, 0.008037344552576542, 0.44443279504776, 0.3188261389732361, 0.04010513052344322, 0.0937773659825325, 0.004667866509407759, 0.15880243480205536, 0.03277062997221947, 0.12046553194522858, 0.26458489894866943, -0.34802454710006714, -0.3214242160320282, -0.32694658637046814, -0.15338970720767975, -0.2764907777309418, 0.21129682660102844, -0.1807597279548645, -0.005469812545925379, 0.145597904920578, -0.028212079778313637, -0.5462246537208557, 0.050335027277469635, -0.30644139647483826, 0.0028302513528615236, -0.06592907756567001, 0.34245002269744873, 0.3479720950126648, 0.10643766075372696, 0.007993916049599648, -0.13600298762321472, -0.12155570834875107, -0.07728317379951477, 0.17296524345874786, -0.012180021964013577, 0.192183256149292, 0.10243906080722809, -0.007114454638212919, -0.13000638782978058, 0.03273085132241249, -0.38752707839012146, 0.23191268742084503, 0.05172146484255791, -0.19326569139957428, 0.25982654094696045, -0.24165299534797668, -0.13992075622081757, -0.05430033802986145, 0.08754618465900421, -0.44124656915664673, 0.21775618195533752, -0.125974640250206, -0.1809481680393219, -0.24670664966106415, 0.49334201216697693, -0.02346186712384224, -0.1368260234594345, 0.11976221948862076, 0.057769108563661575, -0.23911380767822266, 0.18705998361110687, 0.19257041811943054, 0.21922384202480316, 0.015564809553325176, -0.10798773914575577, -0.12000155448913574, -0.1960259974002838, 0.13647405803203583, -0.1517273336648941, -0.10420554876327515, -0.2576170265674591, -0.2657514810562134, -0.07709026336669922, -0.10342127084732056, -0.07553116232156754, -0.138431116938591, -0.13064710795879364, -0.05406065657734871, 0.11457761377096176, 0.048702266067266464, 0.05048881843686104, -0.16596683859825134, -0.015434247441589832, 0.05636361241340637, 0.31814131140708923, 0.054737985134124756, -0.08531276136636734, 0.2924859821796417, -0.00845404528081417, -0.2412862777709961, 0.07263578474521637, -0.15674300491809845, 0.11953907459974289, 0.12278002500534058, -0.028346586972475052, -0.16723237931728363, -0.1060386523604393, -0.0478709451854229, -0.5593051314353943, 0.06919919699430466, 0.0663115605711937, -0.18313761055469513, 0.12543253600597382, -0.1969188153743744, -0.2290859967470169, 0.05924033746123314, -0.10359708219766617, -0.22491517663002014, 0.12970902025699615, 0.1544230580329895, 0.028023380786180496, 0.11749403923749924, 0.13854347169399261, 0.006413856986910105, -0.01654638908803463, 0.21754808723926544, 0.5444244742393494, 0.30882763862609863, 0.20894472301006317, -0.03199733793735504, 0.20749448239803314, 0.24167382717132568, -0.08838721364736557, -0.1627618819475174, -0.0787293091416359, -0.14422917366027832, 0.12583211064338684, -0.02505924366414547, -0.11825639009475708, 0.15879157185554504, -0.23806379735469818, -0.17023728787899017, -0.05355652794241905, 0.16069282591342926, 0.06726320832967758, -0.27497488260269165, 0.049832142889499664, 0.17895102500915527, 0.37394315004348755, -0.28410324454307556, -0.01603139005601406, -0.03154030069708824, 0.21908216178417206, 0.2892897129058838, -0.07716944068670273, -0.23532524704933167, 0.2374282330274582, -0.43883925676345825, -0.10560261458158493, 0.0035961326211690903, 0.07999783754348755, 0.04447941109538078, 0.16830801963806152, -0.10118997097015381, -0.04469991847872734, 0.13993185758590698, -0.29621222615242004, -0.13913409411907196], "in_proj_z.weight": [-0.07162188738584518, -0.08498191088438034, -0.26861950755119324, -0.08455996960401535, -0.10246694087982178, 0.1825569123029709, 0.026274999603629112, 0.05292665958404541, -0.06946001946926117, -0.0025278590619564056, 0.1462821364402771, -0.31385746598243713, 0.1198716089129448, -0.18910349905490875, 0.012230300344526768, 0.23165778815746307, -0.00641581742092967, -0.04928478226065636, 0.01788235642015934, -0.15530897676944733, 0.07749491184949875, -0.2217351645231247, 0.04465747997164726, -0.18234914541244507, -0.08279093354940414, 0.038591716438531876, -0.4041230380535126, -0.11679603159427643, 0.05540063977241516, -0.15773771703243256, -0.09141779690980911, 0.16262458264827728, -0.2117515355348587, 0.21145565807819366, -0.15617206692695618, -0.2793899476528168, -0.030435863882303238, 0.06250659376382828, -0.30074015259742737, -0.1441657394170761, -0.13621793687343597, 0.14716142416000366, 0.19558972120285034, 0.038417790085077286, -0.028171753510832787, 0.4065549373626709, -0.1041334792971611, 0.21263264119625092, -0.372511625289917, -0.022715823724865913, 0.14715240895748138, 0.33061885833740234, -0.09708520025014877, 0.10237888246774673, -0.24894928932189941, -0.29230189323425293, -0.14424867928028107, -0.0732131227850914, 0.20647208392620087, -0.19150401651859283, -0.006813693791627884, -0.20666317641735077, -0.2075609266757965, 0.10653098672628403, 0.18781237304210663, -0.5333033800125122, 0.358452707529068, 0.039413779973983765, 0.17488175630569458, 0.056515809148550034, -0.3006935119628906, 0.3529626727104187, 0.25478383898735046, 0.09791046380996704, -0.5204586386680603, -0.07100138813257217, 0.1728394329547882, -0.0945904478430748, 0.18692587316036224, 0.17918439209461212, -0.27050289511680603, -0.19606071710586548, -0.07097748667001724, -0.09634226560592651, 0.0017027143621817231, -0.10215231031179428, 0.3388834595680237, -0.06271743029356003, 0.00716772023588419, 0.25919121503829956, -0.3516552746295929, -0.06833819299936295, 0.10892192274332047, -0.06245195493102074, -0.08670668303966522, -0.035680390894412994, 0.115810327231884, -0.18206797540187836, -0.05268048122525215, -0.08824791759252548, -0.1215829998254776, -0.061949606984853745, 0.45255622267723083, 0.19267255067825317, -0.09919949620962143, 0.15820014476776123, 0.024602850899100304, -0.08950173854827881, 0.16443675756454468, 0.11342153698205948, 0.027080271393060684, -0.18866299092769623, -0.1120905801653862, -0.011766701005399227, 0.026062166318297386, 0.08314066380262375, -0.09477251768112183, 0.4066990911960602, 0.1623707264661789, -0.08663102239370346, -0.48085570335388184, -0.01605088636279106, -0.1786241978406906, 0.058980103582143784, -0.13861557841300964, 0.06822766363620758, 0.30055174231529236, 0.20486222207546234, 0.022387631237506866, 0.044750895351171494, 0.1586473435163498, 0.04372243210673332, 0.11571452766656876, -0.09706048667430878, 0.07484111934900284, -0.11475696414709091, 0.21797458827495575, 0.016776995733380318, 0.17971915006637573, 0.25972235202789307, 0.12378782033920288, 0.27820464968681335, -0.46417275071144104, -0.17224004864692688, 0.4279501140117645, 0.48206421732902527, 0.09829441457986832, -0.11068449169397354, 0.19262804090976715, 0.0736517384648323, -0.22304527461528778, 0.05162974074482918, 0.2399657964706421, 0.4672066867351532, 0.1455504149198532, -0.12947311997413635, -0.17354853451251984, -0.056299831718206406, 0.2617429196834564, 0.19886299967765808, 0.113449327647686, -0.0858699306845665, 0.13578231632709503, 0.06295454502105713, 0.0064256275072693825, -0.032500527799129486, 0.028807183727622032, -0.3779750168323517, 0.1148773655295372, -0.08016371726989746, -0.13661782443523407, -0.002827402437105775, -0.341440349817276, 0.036485325545072556, -0.12619997560977936, 0.039329949766397476, -0.04588091000914574, -0.1717970371246338, 0.2727462947368622, -0.33188003301620483, -0.054979532957077026, 0.03114362619817257, -0.09112470597028732, -0.18173711001873016, -0.17845439910888672, -0.16185955703258514, 0.03716645762324333, -0.18473374843597412, 0.30979782342910767, 0.3262067139148712, -0.24517691135406494, -0.1359960436820984, -0.12230169028043747, -0.024176200851798058, -0.08354872465133667, -0.3575597405433655, -0.2521422803401947, 0.31108057498931885, 0.04734966158866882, 0.2249608337879181, -0.23523855209350586, -0.15429870784282684, -0.31316789984703064, 0.3880870044231415, 0.048119332641363144, -0.03210216760635376, -0.05312083289027214, 0.2775863707065582, -0.29570549726486206, -0.6945892572402954, -0.25046506524086, 0.05371784046292305, -0.269176185131073, 0.1651567816734314, 0.10255742073059082, -0.012251535430550575, -0.3068825304508209, 0.025605304166674614, -0.06323837488889694, -0.08018051832914352, -0.015292721800506115, 0.11601153761148453, 0.38272973895072937, 0.03786977380514145, 0.1465444564819336, 0.22112300992012024, -0.19295327365398407, -0.0926421731710434, 0.06525398790836334, 0.0210031196475029, 0.10303670167922974, -0.1902315616607666, -0.20736122131347656, -0.21345768868923187, -0.06730237603187561, -0.14232395589351654, 0.31210389733314514, -0.025967136025428772, -0.3752714991569519, 0.10230320692062378, -0.01337351929396391, -0.1728753000497818, 0.19897820055484772, 0.3075840175151825, -0.3856591582298279, 0.05159401893615723, 0.570930540561676, -0.24010811746120453, -0.3078756332397461, -0.14562231302261353, -0.3707561790943146, -0.0572524331510067, 0.10575242340564728, 0.032624389976263046, -0.14991502463817596, 0.1873263567686081, 0.04576876387000084, 0.1522534340620041, 0.02548123337328434, -0.2050497978925705, 0.2050033062696457, 0.05123675614595413, 0.5042654871940613, 0.3614324927330017, -0.14788740873336792, -0.3297778069972992, 0.34660112857818604, -0.15781347453594208, 0.09249302744865417, -0.1970352828502655, 0.013932247646152973, 0.0006765250582247972, -0.015473157167434692, 0.12886105477809906, -0.25259706377983093, 0.1844056099653244, 0.2252010554075241, -0.004460241179913282, 0.12826471030712128, -0.03174835070967674, 0.014920897781848907, 0.3399335443973541, -0.020926643162965775, -0.14706622064113617, 0.13636188209056854, -0.1724964827299118, 0.13336294889450073, 0.11509142071008682, 0.2101566642522812, -0.05968354269862175, -0.4375126361846924, 0.12322085350751877, 0.0379924550652504, 0.10376723855733871, 0.2336825579404831, -0.0572439506649971, 0.16939041018486023, 0.2588348984718323, -0.03538506478071213, 0.20059530436992645, 0.16790276765823364, -0.13036395609378815, -0.056786783039569855, 0.08610150218009949, 0.018125062808394432, -0.002229179022833705, 0.09629657119512558, -0.2671450078487396, -0.15906377136707306, 0.06607969850301743, 0.18537868559360504, -0.16795861721038818, -0.07460492104291916, 0.1717989444732666, -0.2958488464355469, -0.12439773231744766, 0.09245725721120834, 0.0235137976706028, -0.007419331464916468, 0.1053481325507164, 0.35628026723861694, -0.00041254889219999313, 0.028515202924609184, -0.09248917549848557, 0.0566229410469532, -0.18165543675422668, -0.1556910276412964, -0.08022381365299225, 0.0887875184416771, -0.1486562341451645, -0.015510122291743755, -0.0018703759415075183, 0.1383664906024933, -0.01831466518342495, -0.14368265867233276, -0.438958078622818, 0.13910479843616486, 0.16774781048297882, 0.10260651260614395, 0.03324846923351288, 0.28416311740875244, 0.08398672938346863, -0.1493677794933319, 0.19044534862041473, -0.12193690985441208, -0.06090782210230827, 0.11834853887557983, -0.01472559291869402, -0.09651240706443787, -0.057915885001420975, -0.04190432280302048, -0.13551126420497894, 0.3029043674468994, -0.11032839864492416, 0.0045688762329518795, 0.11619986593723297, -0.1092270016670227, -0.15606270730495453, -0.10259860754013062, -0.0898958370089531, -0.13008619844913483, -0.002657682867720723, 0.1468416005373001, -0.20849035680294037, -0.025759784504771233, -0.0912419781088829, 0.41978177428245544, -0.3122439980506897, -0.09694872796535492, 0.16745400428771973, -0.44674810767173767, -0.2915958762168884, 0.2884262502193451, -0.09750159829854965, 0.12067762762308121, -0.06635486334562302, -0.04252972453832626, -0.39415812492370605, 0.1487368792295456, -0.0789267048239708, -0.30484482645988464, -0.34735342860221863, -0.1225190982222557, -0.032983195036649704, -0.12967123091220856, 0.19553524255752563, -0.17321132123470306, 0.0895296260714531, 0.2580743134021759, -0.40627503395080566, -0.24795685708522797, -0.1936611533164978, 0.21942734718322754, 0.00778604531660676, 0.11390751600265503, 0.11549114435911179, 0.277845561504364, 0.29132530093193054, 0.17627742886543274, -0.14231358468532562, -0.09600060433149338, -0.2915211319923401, -0.019912442192435265, -0.1414669305086136, -0.139007568359375, 0.24505817890167236, 0.18095622956752777, 0.1481664478778839, -0.05124320462346077, 0.2681830823421478, 0.05716729164123535, 0.06650245189666748, -0.10189300030469894, 0.02211581915616989, 0.25568920373916626, -0.1215960755944252, 0.2519412934780121, -0.19176869094371796, -0.22044400870800018, 0.20105111598968506, -0.23724544048309326, -0.10262569040060043, -0.1894579380750656, 0.010589463636279106, 0.200306698679924, 0.12870757281780243, 0.09707415103912354, -0.1640532910823822, -0.1425749659538269, 0.057323187589645386, 0.016531478613615036, -0.05697673559188843, 0.12882167100906372, 0.19807569682598114, 0.20072884857654572, -0.034553151577711105, 0.11127201467752457, 0.047641631215810776, -0.11165495961904526, 0.11231764405965805, -0.1329955905675888, 0.050072479993104935, -0.023098263889551163, -0.08337974548339844, 0.18056774139404297, -0.028481174260377884, 0.09258165210485458, 0.05857525020837784, 0.10855729877948761, 0.257603257894516, 0.020480897277593613, -0.22271814942359924, -0.15614931285381317, 0.03137076646089554, -0.013533185236155987, 0.14669601619243622, 0.18238426744937897, -0.2088613361120224, 0.026395639404654503, 0.00820670835673809, -0.2699227035045624, 0.16774730384349823, -0.2508152425289154, 0.0864705890417099, 0.550994336605072, 0.3203223645687103, -0.19959095120429993, 0.07303710281848907, -0.2381172478199005, -0.16633374989032745, -0.04463342949748039, -0.11113987118005753, 0.005926429759711027, 0.0002989478234667331, 0.0708702951669693, -0.0411304235458374, 0.03546702489256859, -0.2506575584411621, 0.13695135712623596, 0.183331698179245, -0.20129840075969696, -0.08466028422117233, 0.07832987606525421, -0.32705584168434143, 0.02142469398677349, -0.25758785009384155, -0.16269011795520782, -0.13439078629016876, 0.08116527646780014, 0.12471052259206772, 0.35360783338546753, -0.16326145827770233, -0.0947660505771637, 0.1356683224439621, 0.03633936494588852, -0.03237641975283623, -0.01895163580775261, 0.3396151661872864, 0.176552414894104, 0.16983117163181305, -0.10244061797857285, -0.23053514957427979, -0.31748542189598083, 0.09478441625833511, 0.16276071965694427, 0.020371705293655396, -0.47860607504844666, -0.14004473388195038, 0.2249213308095932, -0.3652237355709076, -0.3023599088191986, 0.0444721095263958], "in_proj_b.weight": [-0.07122516632080078, -0.2252112478017807, 0.07120783627033234, -0.0832536444067955, 0.23567147552967072, -0.03836118057370186, -0.18820320069789886, -0.2006695568561554, -0.30192050337791443, 0.2422935515642166, -0.22838619351387024, 0.23911595344543457, 0.14514467120170593, -0.39488497376441956, -0.43825671076774597, -0.16612282395362854, 0.2771923243999481, -0.2448119968175888, 0.10190736502408981, 0.03403691574931145, 0.14446328580379486, -0.17076800763607025, -0.06086183711886406, -0.07355914264917374, 0.15149995684623718, -0.07519549131393433, -0.2799088954925537, 0.31010210514068604, -0.008265035226941109, -0.14870958030223846, -0.2545883059501648, 0.19680742919445038, 0.08284201472997665, -0.023243797942996025, 0.23406770825386047, -0.00972568616271019, -0.4282345771789551, 0.006807906087487936, -0.009215597994625568, 0.004986326675862074, -0.02773887850344181, 0.17204822599887848, -0.05609232932329178, -0.1591215878725052, 0.22149935364723206, -0.1258097141981125, -0.11904732137918472, 0.17646579444408417, 0.0876244455575943, 0.3914387822151184, -0.27705612778663635, -0.062088072299957275, -0.18018774688243866, 0.30301305651664734, -0.24042247235774994, 0.24911163747310638, 0.1811002939939499, 0.4232799708843231, 0.2164011299610138, -0.1406400054693222, 0.0627121701836586, 0.17147253453731537, 0.23310206830501556, -0.001435497310012579], "in_proj_a.weight": [0.017946690320968628, -0.09396499395370483, 0.30758675932884216, -0.30655229091644287, -0.022368432953953743, 0.03206648677587509, -0.18220320343971252, 0.7061324119567871, 0.08328698575496674, -0.02586447075009346, -0.20021633803844452, 0.620850682258606, 0.0321836918592453, 0.053745120763778687, -0.022085148841142654, -0.14998860657215118, -0.14076484739780426, -0.1307349056005478, 0.22362788021564484, -0.1757713258266449, 0.1889285147190094, 0.2371392548084259, 0.16739943623542786, -0.023324476554989815, 0.27874788641929626, -0.3680385947227478, -0.017618855461478233, 0.11297237873077393, 0.08128926157951355, 0.2584548592567444, 0.1325593888759613, -0.07424056529998779, 0.020450305193662643, 0.15953049063682556, 0.1333474963903427, -0.24817302823066711, -0.33911311626434326, 0.33252057433128357, 0.22878988087177277, 0.2277378886938095, -0.4023938775062561, 0.240935280919075, 0.2673850655555725, -0.2796190083026886, -0.18040058016777039, 0.1327163279056549, 0.2619924545288086, 0.1697903722524643, 0.36887142062187195, 0.09540768712759018, -5.192673052079044e-05, 0.07745737582445145, -0.09607099741697311, -0.016445597633719444, -0.04118838161230087, -0.03180365636944771, 0.21415658295154572, -0.362226277589798, 0.1470421999692917, -0.2500731945037842, -0.1722223311662674, 0.4668891131877899, 0.04653901979327202, 0.10301385074853897]}, "input": [-0.62049400806427, -0.4205482006072998, 0.2198145091533661, 0.6191233396530151, -0.10206925868988037, 0.23727136850357056, 0.28842464089393616, 0.8382703065872192, -0.5025132298469543, 0.03328922763466835, 0.7110099196434021, 0.017884859815239906, 0.2065172791481018, 0.21543413400650024, 0.0048357280902564526, 0.12263637781143188, 0.010989353992044926, -0.05999954417347908, -0.045365311205387115, 0.7521904110908508, -0.3732764422893524, 0.026723215356469154, -0.22531084716320038, 0.6636096239089966, -0.3083798289299011, 0.05842817574739456, -0.7289029359817505, 0.12297765910625458, -0.6820661425590515, -0.02033296227455139, -0.8817293643951416, 0.12095345556735992, 0.10907500982284546, 0.3073524534702301, 0.7230754494667053, 0.3781740069389343, -0.648374080657959, 0.40395668148994446, 0.39246004819869995, 0.23025642335414886, 0.45930781960487366, 0.4399765133857727, -0.44142457842826843, -0.20759470760822296, 0.06185415759682655, -0.18152478337287903, -0.34471872448921204, 0.5326351523399353, 0.2604348659515381, 0.008000895380973816, 0.731353223323822, -0.025999650359153748, -0.34487974643707275, -0.15612375736236572, 0.3179164230823517, 0.11811648309230804, 0.333849161863327, 0.2916831076145172, -0.08346717804670334, 0.5989201664924622, 0.40419629216194153, -1.000251293182373, 0.2837918996810913, 0.33818528056144714, 0.9651739001274109, 0.4241162836551666, -0.1800312101840973, -0.3379347324371338, -0.1278873085975647, 0.6552200317382812, 0.7532950043678284, -0.2408996820449829, -0.28448495268821716, 0.06614504754543304, -0.32429423928260803, 0.41417396068573, 0.5134320259094238, -0.1347871720790863, 0.08639216423034668, -0.05249496549367905, -0.8086411356925964, 1.1578601598739624, -0.005037788767367601, -0.4914606809616089, 0.48868831992149353, -0.07164247334003448, -0.6287861466407776, -0.23240125179290771, -0.4523159861564636, 0.3578597605228424, -0.20048953592777252, 0.41137775778770447, -1.542809009552002, 0.003387042321264744, 0.3020351827144623, 0.2220950573682785], "output": [-0.021000485867261887, -0.011775024235248566, 0.03082527220249176, -0.056040115654468536, -0.02285100147128105, 0.010255521163344383, -0.003090735524892807, 0.0324704609811306, -0.0008880009409040213, -0.03397352993488312, 0.010906065814197063, -0.0019436657894402742, -0.04983258619904518, 0.028504014015197754, 0.002429600805044174, 0.028505420312285423, -0.013784263283014297, 0.009952749125659466, 0.0017843719106167555, 0.006403560750186443, -0.005602876655757427, 0.0031260671094059944, -0.003433017060160637, 0.02107420563697815, 0.005668669007718563, 0.01372617669403553, -0.00741578359156847, 0.02137754112482071, -0.02340182662010193, -0.025776328518986702, 0.0017112183850258589, 0.014119470492005348, -0.012168407440185547, -0.03137590363621712, -0.008952181786298752, -0.01185342576354742, -0.015942193567752838, -0.02348465844988823, 0.011375458911061287, 0.04242800548672676, 0.0013925014063715935, -0.056716322898864746, -0.007779479958117008, 0.0011053606867790222, 0.020117497071623802, 0.02585340104997158, -0.04376882687211037, -0.02054104022681713, 0.011481506749987602, -0.01882271096110344, -0.0008940920233726501, -0.008473285473883152, -0.03966113552451134, -0.06997997313737869, 0.020879410207271576, 0.01544214878231287, -0.002684846520423889, -0.07992727309465408, -0.00958209577947855, 0.021335359662771225, 0.04660836607217789, 0.018762540072202682, -0.03933483362197876, -0.032904356718063354, 0.020968211814761162, 0.002791190752759576, -0.00730731338262558, -0.00669759651646018, -0.013327136635780334, 0.023268455639481544, 0.012921163812279701, -0.013427495956420898, -0.003404787974432111, -0.03492167219519615, -0.010184617713093758, -0.02439805492758751, 0.034462738782167435, -0.0016846135258674622, 0.005527525208890438, -0.013115298002958298, -0.001308804377913475, -0.025633230805397034, 0.00817880779504776, -0.034055255353450775, 0.03747866302728653, 0.06873482465744019, -0.06677250564098358, -0.0370400995016098, 0.005963489413261414, 0.02451048232614994, 0.015702513977885246, -0.0007000863552093506, -0.08919109404087067, 0.031052613630890846, 0.03795827180147171, -0.012575891800224781]}